digraph Tree {
node [shape=box, style="filled, rounded", color="black", fontname=helvetica] ;
edge [fontname=helvetica] ;
0 [label="mygoal_dist <= 101.1584\ngini = 0.71\nsamples = 334\nvalue = [24, 74, 138, 84, 14]\nclass = DC", fillcolor="#39e5c537"] ;
1 [label="ball_dist <= 15.0799\ngini = 0.6515\nsamples = 279\nvalue = [14, 34, 137, 83, 11]\nclass = DC", fillcolor="#39e5c546"] ;
0 -> 1 [labeldistance=2.5, labelangle=45, headlabel="True"] ;
2 [label="ball_dist <= 13.5067\ngini = 0.729\nsamples = 82\nvalue = [8, 28, 23, 21, 2]\nclass = AP", fillcolor="#7be53916"] ;
1 -> 2 ;
3 [label="ball_dist <= 12.6978\ngini = 0.5232\nsamples = 29\nvalue = [0, 0, 16, 12, 1]\nclass = DC", fillcolor="#39e5c53c"] ;
2 -> 3 ;
4 [label="ball_dist <= 10.9361\ngini = 0.5376\nsamples = 25\nvalue = [0, 0, 12, 12, 1]\nclass = DC", fillcolor="#39e5c500"] ;
3 -> 4 ;
5 [label="gini = 0.5263\nsamples = 19\nvalue = [0, 0, 11, 7, 1]\nclass = DC", fillcolor="#39e5c555"] ;
4 -> 5 ;
6 [label="gini = 0.2778\nsamples = 6\nvalue = [0, 0, 1, 5, 0]\nclass = M", fillcolor="#3c39e5cc"] ;
4 -> 6 ;
7 [label="gini = 0.0\nsamples = 4\nvalue = [0, 0, 4, 0, 0]\nclass = DC", fillcolor="#39e5c5ff"] ;
3 -> 7 ;
8 [label="mygoal_dist <= 37.4305\ngini = 0.6515\nsamples = 53\nvalue = [8, 28, 7, 9, 1]\nclass = AP", fillcolor="#7be5396e"] ;
2 -> 8 ;
9 [label="gini = 0.0\nsamples = 2\nvalue = [0, 0, 0, 2, 0]\nclass = M", fillcolor="#3c39e5ff"] ;
8 -> 9 ;
10 [label="mygoal_dist <= 82.3312\ngini = 0.6359\nsamples = 51\nvalue = [8, 28, 7, 7, 1]\nclass = AP", fillcolor="#7be53977"] ;
8 -> 10 ;
11 [label="gini = 0.625\nsamples = 48\nvalue = [7, 27, 7, 6, 1]\nclass = AP", fillcolor="#7be5397c"] ;
10 -> 11 ;
12 [label="gini = 0.6667\nsamples = 3\nvalue = [1, 1, 0, 1, 0]\nclass = A", fillcolor="#e5813900"] ;
10 -> 12 ;
13 [label="hisgoal_dist <= 112.5642\ngini = 0.5621\nsamples = 197\nvalue = [6, 6, 114, 62, 9]\nclass = DC", fillcolor="#39e5c562"] ;
1 -> 13 ;
14 [label="mygoal_dist <= 65.3734\ngini = 0.6118\nsamples = 111\nvalue = [5, 5, 46, 51, 4]\nclass = M", fillcolor="#3c39e514"] ;
13 -> 14 ;
15 [label="ball_dist <= 59.1399\ngini = 0.5044\nsamples = 30\nvalue = [1, 0, 6, 20, 3]\nclass = M", fillcolor="#3c39e595"] ;
14 -> 15 ;
16 [label="gini = 0.417\nsamples = 27\nvalue = [0, 0, 4, 20, 3]\nclass = M", fillcolor="#3c39e5b1"] ;
15 -> 16 ;
17 [label="gini = 0.4444\nsamples = 3\nvalue = [1, 0, 2, 0, 0]\nclass = DC", fillcolor="#39e5c57f"] ;
15 -> 17 ;
18 [label="ball_dist <= 55.5466\ngini = 0.6033\nsamples = 81\nvalue = [4, 5, 40, 31, 1]\nclass = DC", fillcolor="#39e5c52e"] ;
14 -> 18 ;
19 [label="gini = 0.5791\nsamples = 56\nvalue = [3, 5, 33, 14, 1]\nclass = DC", fillcolor="#39e5c573"] ;
18 -> 19 ;
20 [label="gini = 0.4576\nsamples = 25\nvalue = [1, 0, 7, 17, 0]\nclass = M", fillcolor="#3c39e58e"] ;
18 -> 20 ;
21 [label="ball_dist <= 24.097\ngini = 0.3548\nsamples = 86\nvalue = [1, 1, 68, 11, 5]\nclass = DC", fillcolor="#39e5c5c2"] ;
13 -> 21 ;
22 [label="ball_dist <= 22.723\ngini = 0.5123\nsamples = 18\nvalue = [0, 0, 11, 6, 1]\nclass = DC", fillcolor="#39e5c56a"] ;
21 -> 22 ;
23 [label="gini = 0.3911\nsamples = 15\nvalue = [0, 0, 11, 4, 0]\nclass = DC", fillcolor="#39e5c5a2"] ;
22 -> 23 ;
24 [label="gini = 0.4444\nsamples = 3\nvalue = [0, 0, 0, 2, 1]\nclass = M", fillcolor="#3c39e57f"] ;
22 -> 24 ;
25 [label="ball_dist <= 34.2307\ngini = 0.2881\nsamples = 68\nvalue = [1, 1, 57, 5, 4]\nclass = DC", fillcolor="#39e5c5d2"] ;
21 -> 25 ;
26 [label="gini = 0.1938\nsamples = 47\nvalue = [1, 0, 42, 4, 0]\nclass = DC", fillcolor="#39e5c5e1"] ;
25 -> 26 ;
27 [label="gini = 0.449\nsamples = 21\nvalue = [0, 1, 15, 1, 4]\nclass = DC", fillcolor="#39e5c5a5"] ;
25 -> 27 ;
28 [label="ball_dist <= 54.5798\ngini = 0.4344\nsamples = 55\nvalue = [10, 40, 1, 1, 3]\nclass = AP", fillcolor="#7be539aa"] ;
0 -> 28 [labeldistance=2.5, labelangle=-45, headlabel="False"] ;
29 [label="mygoal_dist <= 109.2537\ngini = 0.3336\nsamples = 50\nvalue = [8, 40, 1, 0, 1]\nclass = AP", fillcolor="#7be539c2"] ;
28 -> 29 ;
30 [label="gini = 0.4444\nsamples = 3\nvalue = [2, 1, 0, 0, 0]\nclass = A", fillcolor="#e581397f"] ;
29 -> 30 ;
31 [label="ball_dist <= 19.6601\ngini = 0.2943\nsamples = 47\nvalue = [6, 39, 1, 0, 1]\nclass = AP", fillcolor="#7be539cd"] ;
29 -> 31 ;
32 [label="gini = 0.0\nsamples = 18\nvalue = [0, 18, 0, 0, 0]\nclass = AP", fillcolor="#7be539ff"] ;
31 -> 32 ;
33 [label="ball_dist <= 23.1705\ngini = 0.4304\nsamples = 29\nvalue = [6, 21, 1, 0, 1]\nclass = AP", fillcolor="#7be539a6"] ;
31 -> 33 ;
34 [label="gini = 0.4444\nsamples = 3\nvalue = [2, 1, 0, 0, 0]\nclass = A", fillcolor="#e581397f"] ;
33 -> 34 ;
35 [label="gini = 0.3817\nsamples = 26\nvalue = [4, 20, 1, 0, 1]\nclass = AP", fillcolor="#7be539b9"] ;
33 -> 35 ;
36 [label="mygoal_dist <= 137.2524\ngini = 0.64\nsamples = 5\nvalue = [2, 0, 0, 1, 2]\nclass = A", fillcolor="#e5813900"] ;
28 -> 36 ;
37 [label="gini = 0.5\nsamples = 2\nvalue = [1, 0, 0, 1, 0]\nclass = A", fillcolor="#e5813900"] ;
36 -> 37 ;
38 [label="gini = 0.4444\nsamples = 3\nvalue = [1, 0, 0, 0, 2]\nclass = MD", fillcolor="#e539c07f"] ;
36 -> 38 ;
}